{
  "timestamp": "2025-08-27T18:35:02.073518",
  "total_steps": 22,
  "log_data": [
    {
      "step": 1,
      "step_name": "test_step",
      "timestamp": "2025-08-27T18:35:02.058767",
      "data": {
        "input_data": {
          "shape": [
            4,
            8
          ],
          "dtype": "float32",
          "mean": 0.1519128978252411,
          "std": 0.9411919713020325,
          "min": -2.486146926879883,
          "max": 2.1056690216064453,
          "sample": [
            -0.6843344569206238,
            -0.7376239895820618,
            -0.45724183320999146,
            0.28543421626091003,
            2.1056690216064453,
            0.7162987589836121,
            -0.1399310827255249,
            1.9635720252990723,
            -0.05888622626662254,
            -2.486146926879883,
            0.05955285206437111,
            -0.1452903002500534,
            0.502095103263855,
            -0.15867026150226593,
            0.20193517208099365,
            0.8925337791442871,
            -1.3515013456344604,
            1.415613055229187,
            0.8599506616592407,
            -0.40679407119750977,
            -0.6294100284576416,
            -0.7389471530914307,
            -0.8205276727676392,
            1.1212425231933594,
            1.169811487197876,
            0.6329020261764526,
            0.0719110369682312,
            1.0027809143066406,
            -0.053015220910310745,
            -0.4937211871147156,
            0.9684440493583679,
            0.2535073459148407
          ]
        },
        "processing_info": {
          "layer": "test",
          "operation": "forward"
        }
      },
      "step_info": {}
    },
    {
      "step": 2,
      "step_name": "Memory_Read",
      "timestamp": "2025-08-27T18:35:02.059432",
      "data": {
        "memory_operation": {
          "operation_type": "read",
          "memory_address": "memory_slot_0",
          "read_data": {
            "shape": [
              8
            ],
            "dtype": "float32",
            "mean": 0.4000675678253174,
            "std": 0.9580470323562622,
            "min": -0.9856468439102173,
            "max": 2.0109617710113525,
            "sample": [
              0.5994107723236084,
              0.3587503731250763,
              0.06678573042154312,
              2.0109617710113525,
              -0.9856468439102173,
              1.5184431076049805,
              0.42497479915618896,
              -0.7931391000747681
            ]
          },
          "write_data": null,
          "attention_weights": {
            "shape": [
              8
            ],
            "dtype": "float32",
            "mean": 0.1249999850988388,
            "std": 0.05965971201658249,
            "min": 0.03868572786450386,
            "max": 0.23194578289985657,
            "sample": [
              0.16769641637802124,
              0.14225181937217712,
              0.088410884141922,
              0.07214105874300003,
              0.17001694440841675,
              0.03868572786450386,
              0.08885128051042557,
              0.23194578289985657
            ]
          },
          "operation_info": {}
        }
      },
      "step_info": {}
    },
    {
      "step": 3,
      "step_name": "Attention_Token_to_state",
      "timestamp": "2025-08-27T18:35:02.059598",
      "data": {
        "attention_operation": {
          "attention_type": "token_to_state",
          "query_info": "token_5",
          "key_info": "state_2",
          "attention_weights": {
            "shape": [
              4
            ],
            "dtype": "float32",
            "mean": 0.25,
            "std": 0.13418379426002502,
            "min": 0.03778677061200142,
            "max": 0.40639203786849976,
            "sample": [
              0.2558853030204773,
              0.299935907125473,
              0.03778677061200142,
              0.40639203786849976
            ]
          },
          "attended_values": {
            "shape": [
              4
            ],
            "dtype": "float32",
            "mean": -1.2929874658584595,
            "std": 0.4913250803947449,
            "min": -2.1231093406677246,
            "max": -0.8401287198066711,
            "sample": [
              -0.8401287198066711,
              -1.1156322956085205,
              -1.093079686164856,
              -2.1231093406677246
            ]
          },
          "operation_info": {}
        }
      },
      "step_info": {}
    },
    {
      "step": 4,
      "step_name": "State_Update_test_component",
      "timestamp": "2025-08-27T18:35:02.060045",
      "data": {
        "state_update": {
          "component_name": "test_component",
          "old_state": {
            "shape": [
              6,
              12
            ],
            "dtype": "float32",
            "mean": 0.1982540786266327,
            "std": 1.05510413646698,
            "min": -3.7955963611602783,
            "max": 2.2059707641601562,
            "sample": [
              0.37412723898887634,
              -0.19326713681221008,
              0.184782013297081,
              1.7227425575256348,
              1.2236820459365845,
              1.7366315126419067,
              1.4765681028366089,
              -0.03095460869371891,
              -0.10575149208307266,
              -0.18016555905342102,
              0.3616461753845215,
              1.0893056392669678,
              -0.9015029668807983,
              -0.015178153291344643,
              0.3086322546005249,
              -0.20569132268428802,
              0.8601238131523132,
              1.5365949869155884,
              1.4794725179672241,
              1.4268680810928345,
              -1.1923466920852661,
              -0.641801118850708,
              -0.40361878275871277,
              1.3278443813323975,
              -1.585544228553772,
              -0.20126210153102875,
              -0.4308892488479614,
              1.4582152366638184,
              0.405277281999588,
              -0.42834022641181946,
              -0.7566505074501038,
              0.13245299458503723,
              2.0175814628601074,
              0.613341748714447,
              0.2047237753868103,
              -0.5631337761878967,
              0.24590137600898743,
              -0.36089205741882324,
              0.04703294113278389,
              -0.3779110312461853,
              -1.2285470962524414,
              0.3708992600440979,
              -0.7430581450462341,
              0.09088346362113953,
              0.6453794240951538,
              -0.18279039859771729,
              -0.08217636495828629,
              1.459501028060913,
              0.8833551406860352,
              -0.006612229160964489,
              -1.049621343612671,
              -0.4119420349597931,
              1.0361168384552002,
              -1.7560019493103027,
              2.135462760925293,
              0.21856527030467987,
              0.022930599749088287,
              0.8096275329589844,
              0.39170387387275696,
              1.832650899887085,
              2.115475654602051,
              2.2059707641601562,
              0.381380558013916,
              -3.7955963611602783,
              -0.38242200016975403,
              0.007121098227798939,
              -1.2749443054199219,
              -0.7603489756584167,
              0.5347455739974976,
              -0.23763161897659302,
              0.7447619438171387,
              -1.3591911792755127
            ]
          },
          "new_state": {
            "shape": [
              6,
              12
            ],
            "dtype": "float32",
            "mean": 0.2161513715982437,
            "std": 1.0684137344360352,
            "min": -3.842280864715576,
            "max": 2.1036128997802734,
            "sample": [
              0.31496748328208923,
              -0.06228114664554596,
              0.30996620655059814,
              1.6982567310333252,
              1.3246266841888428,
              1.7579365968704224,
              1.4596394300460815,
              -0.03398745134472847,
              -0.272886723279953,
              -0.23364382982254028,
              0.33522504568099976,
              1.0983622074127197,
              -0.8623248934745789,
              0.016486311331391335,
              0.38584578037261963,
              -0.3604694604873657,
              0.846805989742279,
              1.3928041458129883,
              1.5708372592926025,
              1.5084466934204102,
              -1.1260942220687866,
              -0.5531272888183594,
              -0.37422117590904236,
              1.3653088808059692,
              -1.5098910331726074,
              -0.4104408323764801,
              -0.3015599250793457,
              1.611711025238037,
              0.5294647216796875,
              -0.34142035245895386,
              -0.7344455122947693,
              0.258648157119751,
              2.0697498321533203,
              0.6191225051879883,
              0.10814834386110306,
              -0.43006032705307007,
              0.2611319422721863,
              -0.5656796097755432,
              -0.022622909396886826,
              -0.49557071924209595,
              -1.1523783206939697,
              0.44384244084358215,
              -0.6430695652961731,
              0.03923090174794197,
              0.5724380016326904,
              -0.23865704238414764,
              -0.16229000687599182,
              1.5772286653518677,
              0.8040828704833984,
              -0.03542815148830414,
              -0.971688449382782,
              -0.23210479319095612,
              1.1721992492675781,
              -1.6693073511123657,
              2.1036128997802734,
              0.23481523990631104,
              -0.03639480471611023,
              0.9884042739868164,
              0.416030615568161,
              2.0285933017730713,
              2.08647084236145,
              2.096726179122925,
              0.5956238508224487,
              -3.842280864715576,
              -0.5432059168815613,
              0.14010916650295258,
              -1.5017681121826172,
              -0.8721845149993896,
              0.60442715883255,
              -0.22670549154281616,
              0.8966585397720337,
              -1.2628962993621826
            ]
          },
          "state_diff": {
            "shape": [
              6,
              12
            ],
            "dtype": "float32",
            "mean": 0.017897281795740128,
            "std": 0.10304486751556396,
            "min": -0.2268238067626953,
            "max": 0.21424329280853271,
            "sample": [
              -0.05915975570678711,
              0.13098599016666412,
              0.12518419325351715,
              -0.02448582649230957,
              0.1009446382522583,
              0.021305084228515625,
              -0.016928672790527344,
              -0.0030328426510095596,
              -0.16713523864746094,
              -0.05347827076911926,
              -0.02642112970352173,
              0.009056568145751953,
              0.03917807340621948,
              0.03166446462273598,
              0.07721352577209473,
              -0.1547781378030777,
              -0.01331782341003418,
              -0.1437908411026001,
              0.09136474132537842,
              0.08157861232757568,
              0.06625247001647949,
              0.08867383003234863,
              0.02939760684967041,
              0.03746449947357178,
              0.07565319538116455,
              -0.20917873084545135,
              0.12932932376861572,
              0.15349578857421875,
              0.12418743968009949,
              0.0869198739528656,
              0.022204995155334473,
              0.12619516253471375,
              0.05216836929321289,
              0.00578075647354126,
              -0.09657543152570724,
              0.13307344913482666,
              0.015230566263198853,
              -0.20478755235671997,
              -0.06965585052967072,
              -0.11765968799591064,
              0.07616877555847168,
              0.07294318079948425,
              0.09998857975006104,
              -0.051652561873197556,
              -0.07294142246246338,
              -0.05586664378643036,
              -0.08011364191770554,
              0.11772763729095459,
              -0.07927227020263672,
              -0.028815921396017075,
              0.07793289422988892,
              0.17983724176883698,
              0.13608241081237793,
              0.08669459819793701,
              -0.03184986114501953,
              0.016249969601631165,
              -0.05932540446519852,
              0.17877674102783203,
              0.024326741695404053,
              0.19594240188598633,
              -0.029004812240600586,
              -0.10924458503723145,
              0.21424329280853271,
              -0.04668450355529785,
              -0.16078391671180725,
              0.1329880654811859,
              -0.2268238067626953,
              -0.1118355393409729,
              0.06968158483505249,
              0.010926127433776855,
              0.15189659595489502,
              0.09629487991333008
            ]
          },
          "update_info": {}
        }
      },
      "step_info": {}
    },
    {
      "step": 5,
      "step_name": "TokenToStateRouter_input_processing",
      "timestamp": "2025-08-27T18:35:02.063453",
      "data": {
        "tokens": {
          "shape": [
            2,
            5,
            32
          ],
          "dtype": "float32",
          "mean": 0.01894080638885498,
          "std": 0.9989086985588074,
          "min": -2.879230260848999,
          "max": 2.9574594497680664,
          "sample": [
            1.3697357177734375,
            -0.3679754436016083,
            0.6796234846115112,
            0.15878495573997498,
            -0.8235694766044617,
            1.9909600019454956,
            0.5766505599021912,
            -1.6857010126113892,
            -0.9624812006950378,
            -0.47824132442474365,
            -1.2364604473114014,
            1.2799055576324463,
            -1.1036913394927979,
            0.1755615472793579,
            -0.9348538517951965,
            -1.8283499479293823,
            0.10126405954360962,
            0.5371280908584595,
            0.4443369507789612,
            -2.3733129501342773,
            0.5842016339302063,
            1.7538114786148071,
            -0.3615732789039612,
            -0.1888907104730606,
            2.9574594497680664,
            0.19420671463012695,
            0.5513119697570801,
            -0.3710057735443115,
            0.12180205434560776,
            0.2746845781803131,
            -1.3819596767425537,
            -0.500979483127594,
            0.05757546424865723,
            0.33686888217926025,
            2.167567729949951,
            1.274142861366272,
            0.43621379137039185,
            0.8979784250259399,
            0.7724502086639404,
            0.29700228571891785,
            0.08839885890483856,
            0.7717680931091309,
            1.4333699941635132,
            -0.6475591063499451,
            -0.45459726452827454,
            0.32042351365089417,
            -0.23698806762695312,
            -0.2231030911207199,
            0.6986817121505737,
            -0.28335902094841003,
            -0.26684173941612244,
            1.3108302354812622,
            1.1853060722351074,
            -0.36286401748657227,
            -1.40104341506958,
            0.24653825163841248,
            -0.8183311820030212,
            -1.7089465856552124,
            -0.9126195907592773,
            -0.204570010304451,
            0.9229480624198914,
            1.3105438947677612,
            -0.9213616847991943,
            -1.4987542629241943,
            2.2945637702941895,
            -1.0355740785598755,
            -0.5132960081100464,
            0.32526376843452454,
            0.25306272506713867,
            -0.5031092762947083,
            -2.3946948051452637,
            1.166141390800476,
            1.389155387878418,
            0.00039667796227149665,
            0.3384593725204468,
            0.7035040855407715,
            0.11039240658283234,
            -0.49279874563217163,
            0.35708120465278625,
            -0.4731846749782562,
            1.610737919807434,
            -1.2418426275253296,
            -0.2364431768655777,
            -2.4278106689453125,
            -0.5306674242019653,
            1.1214573383331299,
            1.3802863359451294,
            -1.0066789388656616,
            0.934415340423584,
            0.441815048456192,
            -0.23463115096092224,
            0.21916325390338898,
            1.8936355113983154,
            0.30352887511253357,
            0.30096977949142456,
            0.6250067949295044,
            -0.3793289363384247,
            0.5724204182624817,
            0.25396767258644104,
            -0.6760440468788147
          ]
        },
        "states": {
          "shape": [
            2,
            4,
            64
          ],
          "dtype": "float32",
          "mean": 0.005352763459086418,
          "std": 0.9681137800216675,
          "min": -2.7860782146453857,
          "max": 2.698617696762085,
          "sample": [
            0.5838181972503662,
            -1.8617571592330933,
            0.04147505387663841,
            0.6589526534080505,
            1.6575684547424316,
            -1.4846829175949097,
            1.217753291130066,
            -1.0875236988067627,
            0.19947566092014313,
            -2.5547733306884766,
            1.7886756658554077,
            -1.174009919166565,
            -0.22505025565624237,
            -0.32793179154396057,
            0.34104102849960327,
            -1.3638496398925781,
            1.4712530374526978,
            -1.2338688373565674,
            -0.47388917207717896,
            -0.8721033334732056,
            -0.6387878656387329,
            -0.6945087313652039,
            -0.9133024215698242,
            -0.1286158412694931,
            -0.6603501439094543,
            -0.2983446419239044,
            -1.2633776664733887,
            -1.7594738006591797,
            -0.14137113094329834,
            0.1459103673696518,
            -0.44080066680908203,
            0.6029892563819885,
            0.8936963677406311,
            1.1447759866714478,
            0.3775757849216461,
            -0.9679744839668274,
            0.3992330729961395,
            -0.27577459812164307,
            0.6694294810295105,
            -0.13603419065475464,
            -0.29446646571159363,
            0.7290883660316467,
            1.1163287162780762,
            1.470008134841919,
            -1.1736079454421997,
            -1.685726284980774,
            1.0777699947357178,
            -0.32485124468803406,
            -0.0406537801027298,
            0.06598953157663345,
            -2.0502758026123047,
            0.3927742838859558,
            1.0672752857208252,
            0.9901848435401917,
            -0.16421973705291748,
            1.0203981399536133,
            0.09059125930070877,
            0.5187148451805115,
            0.6995747089385986,
            2.461514711380005,
            1.0681886672973633,
            -0.5622899532318115,
            1.3935999870300293,
            0.01700899563729763,
            -0.6345872282981873,
            -0.8782008290290833,
            1.1148737668991089,
            0.22215010225772858,
            -1.058249592781067,
            1.9812672138214111,
            -0.31167250871658325,
            0.07243199646472931,
            -0.2817714512348175,
            -0.731382429599762,
            0.011195557191967964,
            1.240052342414856,
            -0.9241194128990173,
            -1.0352747440338135,
            0.13443918526172638,
            -0.7296230792999268,
            -0.33523017168045044,
            0.24551264941692352,
            -1.0169516801834106,
            -0.4267794191837311,
            0.5840838551521301,
            0.7826664447784424,
            0.22150970995426178,
            0.48889198899269104,
            0.012122695334255695,
            0.0712580606341362,
            1.928345799446106,
            -0.954646646976471,
            -1.3507004976272583,
            0.02384575642645359,
            0.8934302926063538,
            1.3971554040908813,
            -0.9050939083099365,
            -0.7779197692871094,
            1.003860354423523,
            0.9632300734519958
          ]
        }
      },
      "step_info": {
        "batch_size": 2,
        "seq_len": 5,
        "token_dim": 32,
        "num_states": 4
      }
    },
    {
      "step": 6,
      "step_name": "TokenToStateRouter_routing_logits_computed",
      "timestamp": "2025-08-27T18:35:02.063936",
      "data": {
        "routing_logits": {
          "shape": [
            2,
            5,
            4,
            4
          ],
          "dtype": "float32",
          "mean": -0.08570145070552826,
          "std": 0.6251612901687622,
          "min": -1.4661812782287598,
          "max": 1.2200794219970703,
          "sample": [
            1.143361210823059,
            0.9249728918075562,
            -1.112504482269287,
            1.0524752140045166,
            -0.6435865163803101,
            -0.3683873414993286,
            -0.7225039601325989,
            -0.3167470395565033,
            -0.40745633840560913,
            -0.8002670407295227,
            0.5517350435256958,
            -0.3897271156311035,
            -1.3491384983062744,
            0.7427736520767212,
            -0.32666492462158203,
            0.8123049736022949,
            0.5257002711296082,
            -0.047224827110767365,
            0.7952083945274353,
            -0.5081396102905273,
            -1.2628535032272339,
            -0.577107310295105,
            -0.4324514865875244,
            0.9413498044013977,
            0.6268512010574341,
            0.01648171991109848,
            -1.3837600946426392,
            0.3168666362762451,
            -0.6568887233734131,
            -0.4677956998348236,
            0.04669445753097534,
            -0.4059984087944031,
            0.4066466689109802,
            -0.24840568006038666,
            -0.28603875637054443,
            -0.12517081201076508,
            -0.33199799060821533,
            0.11157426238059998,
            1.2200794219970703,
            0.052168719470500946,
            -0.6433811187744141,
            -0.3452121317386627,
            1.098117470741272,
            0.062077056616544724,
            -0.5063386559486389,
            -1.1181681156158447,
            -0.11540227383375168,
            0.6965125203132629,
            0.4468196630477905,
            -0.1991480588912964,
            0.17512692511081696,
            -0.19234921038150787,
            -1.2961300611495972,
            0.5056107044219971,
            -0.8962416648864746,
            0.3092942535877228,
            0.06775322556495667,
            -0.3215767443180084,
            0.07158228754997253,
            -0.1575203537940979,
            0.11970175802707672,
            0.30520448088645935,
            -0.06692924350500107,
            -0.8657398819923401,
            0.38165056705474854,
            0.6698427796363831,
            0.012515202164649963,
            -0.7692000865936279,
            -0.6657079458236694,
            -1.1360024213790894,
            0.579675018787384,
            -1.168702483177185,
            0.8609691262245178,
            -0.046139076352119446,
            -0.8491446375846863,
            0.05303851142525673,
            0.1344393938779831,
            1.0305728912353516,
            0.9777014255523682,
            -0.4945371448993683,
            0.6961760520935059,
            -0.16307242214679718,
            0.22276060283184052,
            -0.11106595396995544,
            -0.5226691365242004,
            -0.5581015348434448,
            -0.0025248639285564423,
            -0.8957974910736084,
            0.09886515140533447,
            -0.42546117305755615,
            -0.20530518889427185,
            -1.0257617235183716,
            -0.07958310842514038,
            -0.4470607340335846,
            0.0019143521785736084,
            -0.9610263705253601,
            0.20293712615966797,
            1.0497691631317139,
            -0.33260059356689453,
            -0.7171844244003296
          ]
        }
      },
      "step_info": {}
    },
    {
      "step": 7,
      "step_name": "TokenToStateRouter_routing_weights_computed",
      "timestamp": "2025-08-27T18:35:02.064172",
      "data": {
        "routing_weights": {
          "shape": [
            2,
            5,
            4
          ],
          "dtype": "float32",
          "mean": 0.25,
          "std": 0.07171427458524704,
          "min": 0.13419926166534424,
          "max": 0.4413098692893982,
          "sample": [
            0.1888342797756195,
            0.29290488362312317,
            0.17287872731685638,
            0.34538212418556213,
            0.23834678530693054,
            0.22065773606300354,
            0.22631937265396118,
            0.3146761357784271,
            0.18042044341564178,
            0.15822289884090424,
            0.38117045164108276,
            0.2801862359046936,
            0.23833081126213074,
            0.3023684024810791,
            0.23509933054447174,
            0.22420139610767365,
            0.29265445470809937,
            0.278863787651062,
            0.2933427095413208,
            0.1351390928030014,
            0.3281261622905731,
            0.20993059873580933,
            0.3140060305595398,
            0.14793722331523895,
            0.2663302719593048,
            0.4040137529373169,
            0.15392310917377472,
            0.17573285102844238,
            0.2368435114622116,
            0.24441233277320862,
            0.2519018054008484,
            0.2668423652648926,
            0.17702443897724152,
            0.3237413465976715,
            0.22350507974624634,
            0.275729238986969,
            0.2076192945241928,
            0.4413098692893982,
            0.13419926166534424,
            0.21687160432338715
          ]
        }
      },
      "step_info": {}
    },
    {
      "step": 8,
      "step_name": "Attention_Token_to_state",
      "timestamp": "2025-08-27T18:35:02.064323",
      "data": {
        "attention_operation": {
          "attention_type": "token_to_state",
          "query_info": "tokens_5",
          "key_info": "states_4",
          "attention_weights": {
            "shape": [
              2,
              5,
              4
            ],
            "dtype": "float32",
            "mean": 0.25,
            "std": 0.07171427458524704,
            "min": 0.13419926166534424,
            "max": 0.4413098692893982,
            "sample": [
              0.1888342797756195,
              0.29290488362312317,
              0.17287872731685638,
              0.34538212418556213,
              0.23834678530693054,
              0.22065773606300354,
              0.22631937265396118,
              0.3146761357784271,
              0.18042044341564178,
              0.15822289884090424,
              0.38117045164108276,
              0.2801862359046936,
              0.23833081126213074,
              0.3023684024810791,
              0.23509933054447174,
              0.22420139610767365,
              0.29265445470809937,
              0.278863787651062,
              0.2933427095413208,
              0.1351390928030014,
              0.3281261622905731,
              0.20993059873580933,
              0.3140060305595398,
              0.14793722331523895,
              0.2663302719593048,
              0.4040137529373169,
              0.15392310917377472,
              0.17573285102844238,
              0.2368435114622116,
              0.24441233277320862,
              0.2519018054008484,
              0.2668423652648926,
              0.17702443897724152,
              0.3237413465976715,
              0.22350507974624634,
              0.275729238986969,
              0.2076192945241928,
              0.4413098692893982,
              0.13419926166534424,
              0.21687160432338715
            ]
          },
          "attended_values": null,
          "operation_info": {}
        }
      },
      "step_info": {}
    },
    {
      "step": 9,
      "step_name": "TokenToStateRouter_tokens_routed",
      "timestamp": "2025-08-27T18:35:02.064434",
      "data": {
        "routed_tokens": {
          "shape": [
            2,
            4,
            32
          ],
          "dtype": "float32",
          "mean": 0.023676011711359024,
          "std": 0.5850667357444763,
          "min": -1.889435887336731,
          "max": 1.7890853881835938,
          "sample": [
            0.3384920060634613,
            0.014010820537805557,
            0.8901119828224182,
            0.28701019287109375,
            0.15588603913784027,
            0.435730516910553,
            0.4769332706928253,
            -0.3711741864681244,
            0.13230189681053162,
            -0.06619501113891602,
            0.36720705032348633,
            0.25340548157691956,
            -1.279203176498413,
            0.31642353534698486,
            -0.4492466151714325,
            -0.4244977533817291,
            1.1353893280029297,
            -0.28230321407318115,
            -0.31209859251976013,
            -1.326916217803955,
            0.22784526646137238,
            -0.4196232557296753,
            -0.0411146804690361,
            0.18267160654067993,
            0.979901134967804,
            -0.8864856362342834,
            0.07426205277442932,
            0.14530552923679352,
            0.4973437786102295,
            0.4880684018135071,
            -0.23679396510124207,
            -0.20941607654094696,
            0.4169301688671112,
            0.026873460039496422,
            0.9370924830436707,
            0.22785604000091553,
            0.03703539818525314,
            0.7076030373573303,
            0.6504806876182556,
            -0.6753475069999695,
            0.007018513977527618,
            -0.24461176991462708,
            0.3274211287498474,
            0.4142638146877289,
            -1.4072010517120361,
            0.2555406987667084,
            -0.4970460832118988,
            -0.6773272156715393,
            1.1400394439697266,
            -0.32983067631721497,
            -0.3103584349155426,
            -1.5888620615005493,
            0.287864089012146,
            -0.2223280519247055,
            -0.11320008337497711,
            0.19372357428073883,
            1.3082664012908936,
            -0.807617723941803,
            0.0718490406870842,
            0.15554800629615784,
            0.4166961908340454,
            0.42400985956192017,
            -0.316032737493515,
            -0.20893025398254395,
            0.7771986126899719,
            -0.19378477334976196,
            0.7499850988388062,
            0.33676454424858093,
            0.2155766636133194,
            0.28866973519325256,
            -0.026036981493234634,
            -0.10882262140512466,
            0.42510077357292175,
            -0.06197069585323334,
            0.4315027594566345,
            0.38039687275886536,
            -1.2329989671707153,
            0.21508583426475525,
            -0.362471342086792,
            -0.4837559163570404,
            1.4465841054916382,
            -0.5299112796783447,
            -0.36069414019584656,
            -1.7898805141448975,
            0.09731428325176239,
            -0.21976523101329803,
            0.2600362300872803,
            -0.02001924254000187,
            1.128777027130127,
            -0.7822487354278564,
            0.03342248499393463,
            0.19515360891819,
            0.8662104606628418,
            0.5320151448249817,
            -0.14601612091064453,
            -0.05994373559951782,
            0.9301696419715881,
            -0.15814408659934998,
            0.9579467177391052,
            0.4211040437221527
          ]
        }
      },
      "step_info": {}
    },
    {
      "step": 10,
      "step_name": "TokenToStateRouter_output_projection_applied",
      "timestamp": "2025-08-27T18:35:02.066326",
      "data": {
        "final_routed_tokens": {
          "shape": [
            2,
            4,
            64
          ],
          "dtype": "float32",
          "mean": 0.002756066620349884,
          "std": 0.27941298484802246,
          "min": -0.8770978450775146,
          "max": 0.7545616626739502,
          "sample": [
            0.3524978458881378,
            0.3953316807746887,
            -0.44108957052230835,
            -0.01107458770275116,
            -0.23417484760284424,
            0.2642812132835388,
            0.603073000907898,
            -0.4868531823158264,
            0.047198060899972916,
            0.45070400834083557,
            -0.13375720381736755,
            0.11074334383010864,
            -0.38210469484329224,
            0.20158354938030243,
            -0.2541005313396454,
            -0.07129786908626556,
            0.06882204115390778,
            -0.39034759998321533,
            -0.285413920879364,
            -0.07055564224720001,
            0.425703763961792,
            0.11601105332374573,
            -0.2892608940601349,
            -0.009142553433775902,
            -0.08839114010334015,
            0.34117043018341064,
            -0.4274712800979614,
            0.19610202312469482,
            -0.22177289426326752,
            -0.0908382385969162,
            -0.0033446624875068665,
            -0.14757540822029114,
            -0.07037951797246933,
            0.21299465000629425,
            0.3507537245750427,
            -0.022754114121198654,
            0.02126268669962883,
            -0.09932643175125122,
            -0.027951747179031372,
            0.09288322925567627,
            -0.3343212604522705,
            0.41499313712120056,
            0.049528270959854126,
            0.2446117252111435,
            0.11798131465911865,
            -0.11402297019958496,
            -0.22531229257583618,
            -0.4657875895500183,
            -0.1705140620470047,
            0.25552940368652344,
            0.1729043424129486,
            0.1107758954167366,
            -0.025156326591968536,
            -0.1689411997795105,
            0.46804141998291016,
            -0.4061351418495178,
            0.5470219850540161,
            0.30090442299842834,
            -0.05616665259003639,
            0.2515616714954376,
            -0.2452169954776764,
            0.04768300801515579,
            0.32362279295921326,
            0.07443174719810486,
            0.4778423011302948,
            0.4398767948150635,
            -0.4393184185028076,
            0.0554671548306942,
            -0.15848208963871002,
            0.3155773878097534,
            0.6262115240097046,
            -0.5258768796920776,
            0.13822877407073975,
            0.48231539130210876,
            -0.2893121838569641,
            0.05288319289684296,
            -0.45410507917404175,
            0.1345084011554718,
            -0.31911975145339966,
            -0.1453108787536621,
            0.06972885131835938,
            -0.3834460973739624,
            -0.31325870752334595,
            -0.03045918419957161,
            0.49586063623428345,
            0.10812240093946457,
            -0.38973987102508545,
            -0.06440446525812149,
            -0.08139138668775558,
            0.2869245409965515,
            -0.5314830541610718,
            0.27549731731414795,
            -0.24502719938755035,
            -0.17775021493434906,
            -0.05025123059749603,
            -0.12764066457748413,
            -0.03571377694606781,
            0.2189003974199295,
            0.4480498433113098,
            0.02107447385787964
          ]
        },
        "final_routing_weights": {
          "shape": [
            2,
            5,
            4
          ],
          "dtype": "float32",
          "mean": 0.25,
          "std": 0.07171427458524704,
          "min": 0.13419926166534424,
          "max": 0.4413098692893982,
          "sample": [
            0.1888342797756195,
            0.29290488362312317,
            0.17287872731685638,
            0.34538212418556213,
            0.23834678530693054,
            0.22065773606300354,
            0.22631937265396118,
            0.3146761357784271,
            0.18042044341564178,
            0.15822289884090424,
            0.38117045164108276,
            0.2801862359046936,
            0.23833081126213074,
            0.3023684024810791,
            0.23509933054447174,
            0.22420139610767365,
            0.29265445470809937,
            0.278863787651062,
            0.2933427095413208,
            0.1351390928030014,
            0.3281261622905731,
            0.20993059873580933,
            0.3140060305595398,
            0.14793722331523895,
            0.2663302719593048,
            0.4040137529373169,
            0.15392310917377472,
            0.17573285102844238,
            0.2368435114622116,
            0.24441233277320862,
            0.2519018054008484,
            0.2668423652648926,
            0.17702443897724152,
            0.3237413465976715,
            0.22350507974624634,
            0.275729238986969,
            0.2076192945241928,
            0.4413098692893982,
            0.13419926166534424,
            0.21687160432338715
          ]
        }
      },
      "step_info": {}
    },
    {
      "step": 11,
      "step_name": "StateManager_active_states_retrieved",
      "timestamp": "2025-08-27T18:35:02.070295",
      "data": {
        "active_states": {
          "shape": [
            4,
            64
          ],
          "dtype": "float32",
          "mean": -0.008854128420352936,
          "std": 0.100078284740448,
          "min": -0.24026496708393097,
          "max": 0.3256872296333313,
          "sample": [
            0.029041990637779236,
            0.038986094295978546,
            0.27520623803138733,
            -0.1498987227678299,
            -0.0420626737177372,
            -0.08609449118375778,
            0.06423579156398773,
            -0.06776731461286545,
            -0.16475723683834076,
            -0.041180700063705444,
            0.041627246886491776,
            0.05096583440899849,
            -0.08720099925994873,
            0.11034373193979263,
            -0.1439034789800644,
            0.039738427847623825,
            -0.075832299888134,
            0.03705799952149391,
            -0.11734934896230698,
            0.024570493027567863,
            -0.023564403876662254,
            -0.13306830823421478,
            -0.04834364727139473,
            -0.15958404541015625,
            0.10457920283079147,
            -0.04257523640990257,
            0.04314484819769859,
            -0.009874040260910988,
            0.10205445438623428,
            -0.19685861468315125,
            -0.015349826775491238,
            -0.014455708675086498,
            -0.003725968999788165,
            -0.024799903854727745,
            -0.07059676945209503,
            0.0736052468419075,
            -0.07522376626729965,
            -0.01342498417943716,
            -0.2154698371887207,
            0.06454946845769882,
            0.044831667095422745,
            -0.15001574158668518,
            0.0351557582616806,
            -0.04801810160279274,
            -0.07920859009027481,
            -0.22141234576702118,
            -0.003011693712323904,
            -0.039952535182237625,
            0.028163254261016846,
            0.0026981981936842203,
            0.04890799894928932,
            -0.16130046546459198,
            -0.06051691249012947,
            -0.09260337799787521,
            0.1321064680814743,
            0.06789804250001907,
            0.06746327131986618,
            0.017284885048866272,
            0.02432413585484028,
            -0.02861720696091652,
            0.19289672374725342,
            0.0398709736764431,
            0.07807959616184235,
            0.06114046648144722,
            0.020824594423174858,
            0.06422672420740128,
            0.20271408557891846,
            -0.13166965544223785,
            0.17161095142364502,
            0.10047917813062668,
            -0.2305990308523178,
            0.12734590470790863,
            -0.10376181453466415,
            0.14872734248638153,
            -0.009568343870341778,
            0.028301751241087914,
            0.10924255102872849,
            -0.12410745769739151,
            0.11722663789987564,
            0.3256872296333313,
            0.02593514695763588,
            -0.05393960699439049,
            0.04811359569430351,
            -0.010900157503783703,
            0.034077372401952744,
            -0.09524001181125641,
            -0.023791123181581497,
            -0.173242449760437,
            0.01827266812324524,
            -0.17323952913284302,
            -0.026914510875940323,
            0.10271229594945908,
            -0.032435718923807144,
            -0.04831098020076752,
            -0.04318836331367493,
            -0.11115651577711105,
            0.12677325308322906,
            0.07040085643529892,
            -0.1162935420870781,
            -0.1548803746700287
          ]
        },
        "active_count": 4,
        "importance_scores": {
          "shape": [
            8
          ],
          "dtype": "float32",
          "mean": 0.690687894821167,
          "std": 0.03222960606217384,
          "min": 0.6418867707252502,
          "max": 0.7296931743621826,
          "sample": [
            0.7296931743621826,
            0.7054310441017151,
            0.7295080423355103,
            0.6418867707252502,
            0.6539146304130554,
            0.661743700504303,
            0.7128815054893494,
            0.6904439926147461
          ]
        }
      },
      "step_info": {}
    },
    {
      "step": 12,
      "step_name": "StatePropagator_state_propagation_started",
      "timestamp": "2025-08-27T18:35:02.070681",
      "data": {
        "prev_state": {
          "shape": [
            2,
            4,
            64
          ],
          "dtype": "float32",
          "mean": 0.005352763459086418,
          "std": 0.9681137800216675,
          "min": -2.7860782146453857,
          "max": 2.698617696762085,
          "sample": [
            0.5838181972503662,
            -1.8617571592330933,
            0.04147505387663841,
            0.6589526534080505,
            1.6575684547424316,
            -1.4846829175949097,
            1.217753291130066,
            -1.0875236988067627,
            0.19947566092014313,
            -2.5547733306884766,
            1.7886756658554077,
            -1.174009919166565,
            -0.22505025565624237,
            -0.32793179154396057,
            0.34104102849960327,
            -1.3638496398925781,
            1.4712530374526978,
            -1.2338688373565674,
            -0.47388917207717896,
            -0.8721033334732056,
            -0.6387878656387329,
            -0.6945087313652039,
            -0.9133024215698242,
            -0.1286158412694931,
            -0.6603501439094543,
            -0.2983446419239044,
            -1.2633776664733887,
            -1.7594738006591797,
            -0.14137113094329834,
            0.1459103673696518,
            -0.44080066680908203,
            0.6029892563819885,
            0.8936963677406311,
            1.1447759866714478,
            0.3775757849216461,
            -0.9679744839668274,
            0.3992330729961395,
            -0.27577459812164307,
            0.6694294810295105,
            -0.13603419065475464,
            -0.29446646571159363,
            0.7290883660316467,
            1.1163287162780762,
            1.470008134841919,
            -1.1736079454421997,
            -1.685726284980774,
            1.0777699947357178,
            -0.32485124468803406,
            -0.0406537801027298,
            0.06598953157663345,
            -2.0502758026123047,
            0.3927742838859558,
            1.0672752857208252,
            0.9901848435401917,
            -0.16421973705291748,
            1.0203981399536133,
            0.09059125930070877,
            0.5187148451805115,
            0.6995747089385986,
            2.461514711380005,
            1.0681886672973633,
            -0.5622899532318115,
            1.3935999870300293,
            0.01700899563729763,
            -0.6345872282981873,
            -0.8782008290290833,
            1.1148737668991089,
            0.22215010225772858,
            -1.058249592781067,
            1.9812672138214111,
            -0.31167250871658325,
            0.07243199646472931,
            -0.2817714512348175,
            -0.731382429599762,
            0.011195557191967964,
            1.240052342414856,
            -0.9241194128990173,
            -1.0352747440338135,
            0.13443918526172638,
            -0.7296230792999268,
            -0.33523017168045044,
            0.24551264941692352,
            -1.0169516801834106,
            -0.4267794191837311,
            0.5840838551521301,
            0.7826664447784424,
            0.22150970995426178,
            0.48889198899269104,
            0.012122695334255695,
            0.0712580606341362,
            1.928345799446106,
            -0.954646646976471,
            -1.3507004976272583,
            0.02384575642645359,
            0.8934302926063538,
            1.3971554040908813,
            -0.9050939083099365,
            -0.7779197692871094,
            1.003860354423523,
            0.9632300734519958
          ]
        },
        "new_input": {
          "shape": [
            2,
            4,
            64
          ],
          "dtype": "float32",
          "mean": 0.002756066620349884,
          "std": 0.27941298484802246,
          "min": -0.8770978450775146,
          "max": 0.7545616626739502,
          "sample": [
            0.3524978458881378,
            0.3953316807746887,
            -0.44108957052230835,
            -0.01107458770275116,
            -0.23417484760284424,
            0.2642812132835388,
            0.603073000907898,
            -0.4868531823158264,
            0.047198060899972916,
            0.45070400834083557,
            -0.13375720381736755,
            0.11074334383010864,
            -0.38210469484329224,
            0.20158354938030243,
            -0.2541005313396454,
            -0.07129786908626556,
            0.06882204115390778,
            -0.39034759998321533,
            -0.285413920879364,
            -0.07055564224720001,
            0.425703763961792,
            0.11601105332374573,
            -0.2892608940601349,
            -0.009142553433775902,
            -0.08839114010334015,
            0.34117043018341064,
            -0.4274712800979614,
            0.19610202312469482,
            -0.22177289426326752,
            -0.0908382385969162,
            -0.0033446624875068665,
            -0.14757540822029114,
            -0.07037951797246933,
            0.21299465000629425,
            0.3507537245750427,
            -0.022754114121198654,
            0.02126268669962883,
            -0.09932643175125122,
            -0.027951747179031372,
            0.09288322925567627,
            -0.3343212604522705,
            0.41499313712120056,
            0.049528270959854126,
            0.2446117252111435,
            0.11798131465911865,
            -0.11402297019958496,
            -0.22531229257583618,
            -0.4657875895500183,
            -0.1705140620470047,
            0.25552940368652344,
            0.1729043424129486,
            0.1107758954167366,
            -0.025156326591968536,
            -0.1689411997795105,
            0.46804141998291016,
            -0.4061351418495178,
            0.5470219850540161,
            0.30090442299842834,
            -0.05616665259003639,
            0.2515616714954376,
            -0.2452169954776764,
            0.04768300801515579,
            0.32362279295921326,
            0.07443174719810486,
            0.4778423011302948,
            0.4398767948150635,
            -0.4393184185028076,
            0.0554671548306942,
            -0.15848208963871002,
            0.3155773878097534,
            0.6262115240097046,
            -0.5258768796920776,
            0.13822877407073975,
            0.48231539130210876,
            -0.2893121838569641,
            0.05288319289684296,
            -0.45410507917404175,
            0.1345084011554718,
            -0.31911975145339966,
            -0.1453108787536621,
            0.06972885131835938,
            -0.3834460973739624,
            -0.31325870752334595,
            -0.03045918419957161,
            0.49586063623428345,
            0.10812240093946457,
            -0.38973987102508545,
            -0.06440446525812149,
            -0.08139138668775558,
            0.2869245409965515,
            -0.5314830541610718,
            0.27549731731414795,
            -0.24502719938755035,
            -0.17775021493434906,
            -0.05025123059749603,
            -0.12764066457748413,
            -0.03571377694606781,
            0.2189003974199295,
            0.4480498433113098,
            0.02107447385787964
          ]
        }
      },
      "step_info": {}
    },
    {
      "step": 13,
      "step_name": "StatePropagator_multi_state_update_started",
      "timestamp": "2025-08-27T18:35:02.070855",
      "data": {
        "prev_states": {
          "shape": [
            2,
            4,
            64
          ],
          "dtype": "float32",
          "mean": 0.005352763459086418,
          "std": 0.9681137800216675,
          "min": -2.7860782146453857,
          "max": 2.698617696762085,
          "sample": [
            0.5838181972503662,
            -1.8617571592330933,
            0.04147505387663841,
            0.6589526534080505,
            1.6575684547424316,
            -1.4846829175949097,
            1.217753291130066,
            -1.0875236988067627,
            0.19947566092014313,
            -2.5547733306884766,
            1.7886756658554077,
            -1.174009919166565,
            -0.22505025565624237,
            -0.32793179154396057,
            0.34104102849960327,
            -1.3638496398925781,
            1.4712530374526978,
            -1.2338688373565674,
            -0.47388917207717896,
            -0.8721033334732056,
            -0.6387878656387329,
            -0.6945087313652039,
            -0.9133024215698242,
            -0.1286158412694931,
            -0.6603501439094543,
            -0.2983446419239044,
            -1.2633776664733887,
            -1.7594738006591797,
            -0.14137113094329834,
            0.1459103673696518,
            -0.44080066680908203,
            0.6029892563819885,
            0.8936963677406311,
            1.1447759866714478,
            0.3775757849216461,
            -0.9679744839668274,
            0.3992330729961395,
            -0.27577459812164307,
            0.6694294810295105,
            -0.13603419065475464,
            -0.29446646571159363,
            0.7290883660316467,
            1.1163287162780762,
            1.470008134841919,
            -1.1736079454421997,
            -1.685726284980774,
            1.0777699947357178,
            -0.32485124468803406,
            -0.0406537801027298,
            0.06598953157663345,
            -2.0502758026123047,
            0.3927742838859558,
            1.0672752857208252,
            0.9901848435401917,
            -0.16421973705291748,
            1.0203981399536133,
            0.09059125930070877,
            0.5187148451805115,
            0.6995747089385986,
            2.461514711380005,
            1.0681886672973633,
            -0.5622899532318115,
            1.3935999870300293,
            0.01700899563729763,
            -0.6345872282981873,
            -0.8782008290290833,
            1.1148737668991089,
            0.22215010225772858,
            -1.058249592781067,
            1.9812672138214111,
            -0.31167250871658325,
            0.07243199646472931,
            -0.2817714512348175,
            -0.731382429599762,
            0.011195557191967964,
            1.240052342414856,
            -0.9241194128990173,
            -1.0352747440338135,
            0.13443918526172638,
            -0.7296230792999268,
            -0.33523017168045044,
            0.24551264941692352,
            -1.0169516801834106,
            -0.4267794191837311,
            0.5840838551521301,
            0.7826664447784424,
            0.22150970995426178,
            0.48889198899269104,
            0.012122695334255695,
            0.0712580606341362,
            1.928345799446106,
            -0.954646646976471,
            -1.3507004976272583,
            0.02384575642645359,
            0.8934302926063538,
            1.3971554040908813,
            -0.9050939083099365,
            -0.7779197692871094,
            1.003860354423523,
            0.9632300734519958
          ]
        },
        "new_inputs": {
          "shape": [
            2,
            4,
            64
          ],
          "dtype": "float32",
          "mean": 0.002756066620349884,
          "std": 0.27941298484802246,
          "min": -0.8770978450775146,
          "max": 0.7545616626739502,
          "sample": [
            0.3524978458881378,
            0.3953316807746887,
            -0.44108957052230835,
            -0.01107458770275116,
            -0.23417484760284424,
            0.2642812132835388,
            0.603073000907898,
            -0.4868531823158264,
            0.047198060899972916,
            0.45070400834083557,
            -0.13375720381736755,
            0.11074334383010864,
            -0.38210469484329224,
            0.20158354938030243,
            -0.2541005313396454,
            -0.07129786908626556,
            0.06882204115390778,
            -0.39034759998321533,
            -0.285413920879364,
            -0.07055564224720001,
            0.425703763961792,
            0.11601105332374573,
            -0.2892608940601349,
            -0.009142553433775902,
            -0.08839114010334015,
            0.34117043018341064,
            -0.4274712800979614,
            0.19610202312469482,
            -0.22177289426326752,
            -0.0908382385969162,
            -0.0033446624875068665,
            -0.14757540822029114,
            -0.07037951797246933,
            0.21299465000629425,
            0.3507537245750427,
            -0.022754114121198654,
            0.02126268669962883,
            -0.09932643175125122,
            -0.027951747179031372,
            0.09288322925567627,
            -0.3343212604522705,
            0.41499313712120056,
            0.049528270959854126,
            0.2446117252111435,
            0.11798131465911865,
            -0.11402297019958496,
            -0.22531229257583618,
            -0.4657875895500183,
            -0.1705140620470047,
            0.25552940368652344,
            0.1729043424129486,
            0.1107758954167366,
            -0.025156326591968536,
            -0.1689411997795105,
            0.46804141998291016,
            -0.4061351418495178,
            0.5470219850540161,
            0.30090442299842834,
            -0.05616665259003639,
            0.2515616714954376,
            -0.2452169954776764,
            0.04768300801515579,
            0.32362279295921326,
            0.07443174719810486,
            0.4778423011302948,
            0.4398767948150635,
            -0.4393184185028076,
            0.0554671548306942,
            -0.15848208963871002,
            0.3155773878097534,
            0.6262115240097046,
            -0.5258768796920776,
            0.13822877407073975,
            0.48231539130210876,
            -0.2893121838569641,
            0.05288319289684296,
            -0.45410507917404175,
            0.1345084011554718,
            -0.31911975145339966,
            -0.1453108787536621,
            0.06972885131835938,
            -0.3834460973739624,
            -0.31325870752334595,
            -0.03045918419957161,
            0.49586063623428345,
            0.10812240093946457,
            -0.38973987102508545,
            -0.06440446525812149,
            -0.08139138668775558,
            0.2869245409965515,
            -0.5314830541610718,
            0.27549731731414795,
            -0.24502719938755035,
            -0.17775021493434906,
            -0.05025123059749603,
            -0.12764066457748413,
            -0.03571377694606781,
            0.2189003974199295,
            0.4480498433113098,
            0.02107447385787964
          ]
        }
      },
      "step_info": {}
    },
    {
      "step": 14,
      "step_name": "StatePropagator_gru_multi_step_started",
      "timestamp": "2025-08-27T18:35:02.070983",
      "data": {
        "prev_states": {
          "shape": [
            2,
            4,
            64
          ],
          "dtype": "float32",
          "mean": 0.005352763459086418,
          "std": 0.9681137800216675,
          "min": -2.7860782146453857,
          "max": 2.698617696762085,
          "sample": [
            0.5838181972503662,
            -1.8617571592330933,
            0.04147505387663841,
            0.6589526534080505,
            1.6575684547424316,
            -1.4846829175949097,
            1.217753291130066,
            -1.0875236988067627,
            0.19947566092014313,
            -2.5547733306884766,
            1.7886756658554077,
            -1.174009919166565,
            -0.22505025565624237,
            -0.32793179154396057,
            0.34104102849960327,
            -1.3638496398925781,
            1.4712530374526978,
            -1.2338688373565674,
            -0.47388917207717896,
            -0.8721033334732056,
            -0.6387878656387329,
            -0.6945087313652039,
            -0.9133024215698242,
            -0.1286158412694931,
            -0.6603501439094543,
            -0.2983446419239044,
            -1.2633776664733887,
            -1.7594738006591797,
            -0.14137113094329834,
            0.1459103673696518,
            -0.44080066680908203,
            0.6029892563819885,
            0.8936963677406311,
            1.1447759866714478,
            0.3775757849216461,
            -0.9679744839668274,
            0.3992330729961395,
            -0.27577459812164307,
            0.6694294810295105,
            -0.13603419065475464,
            -0.29446646571159363,
            0.7290883660316467,
            1.1163287162780762,
            1.470008134841919,
            -1.1736079454421997,
            -1.685726284980774,
            1.0777699947357178,
            -0.32485124468803406,
            -0.0406537801027298,
            0.06598953157663345,
            -2.0502758026123047,
            0.3927742838859558,
            1.0672752857208252,
            0.9901848435401917,
            -0.16421973705291748,
            1.0203981399536133,
            0.09059125930070877,
            0.5187148451805115,
            0.6995747089385986,
            2.461514711380005,
            1.0681886672973633,
            -0.5622899532318115,
            1.3935999870300293,
            0.01700899563729763,
            -0.6345872282981873,
            -0.8782008290290833,
            1.1148737668991089,
            0.22215010225772858,
            -1.058249592781067,
            1.9812672138214111,
            -0.31167250871658325,
            0.07243199646472931,
            -0.2817714512348175,
            -0.731382429599762,
            0.011195557191967964,
            1.240052342414856,
            -0.9241194128990173,
            -1.0352747440338135,
            0.13443918526172638,
            -0.7296230792999268,
            -0.33523017168045044,
            0.24551264941692352,
            -1.0169516801834106,
            -0.4267794191837311,
            0.5840838551521301,
            0.7826664447784424,
            0.22150970995426178,
            0.48889198899269104,
            0.012122695334255695,
            0.0712580606341362,
            1.928345799446106,
            -0.954646646976471,
            -1.3507004976272583,
            0.02384575642645359,
            0.8934302926063538,
            1.3971554040908813,
            -0.9050939083099365,
            -0.7779197692871094,
            1.003860354423523,
            0.9632300734519958
          ]
        },
        "new_inputs": {
          "shape": [
            2,
            4,
            64
          ],
          "dtype": "float32",
          "mean": 0.002756066620349884,
          "std": 0.27941298484802246,
          "min": -0.8770978450775146,
          "max": 0.7545616626739502,
          "sample": [
            0.3524978458881378,
            0.3953316807746887,
            -0.44108957052230835,
            -0.01107458770275116,
            -0.23417484760284424,
            0.2642812132835388,
            0.603073000907898,
            -0.4868531823158264,
            0.047198060899972916,
            0.45070400834083557,
            -0.13375720381736755,
            0.11074334383010864,
            -0.38210469484329224,
            0.20158354938030243,
            -0.2541005313396454,
            -0.07129786908626556,
            0.06882204115390778,
            -0.39034759998321533,
            -0.285413920879364,
            -0.07055564224720001,
            0.425703763961792,
            0.11601105332374573,
            -0.2892608940601349,
            -0.009142553433775902,
            -0.08839114010334015,
            0.34117043018341064,
            -0.4274712800979614,
            0.19610202312469482,
            -0.22177289426326752,
            -0.0908382385969162,
            -0.0033446624875068665,
            -0.14757540822029114,
            -0.07037951797246933,
            0.21299465000629425,
            0.3507537245750427,
            -0.022754114121198654,
            0.02126268669962883,
            -0.09932643175125122,
            -0.027951747179031372,
            0.09288322925567627,
            -0.3343212604522705,
            0.41499313712120056,
            0.049528270959854126,
            0.2446117252111435,
            0.11798131465911865,
            -0.11402297019958496,
            -0.22531229257583618,
            -0.4657875895500183,
            -0.1705140620470047,
            0.25552940368652344,
            0.1729043424129486,
            0.1107758954167366,
            -0.025156326591968536,
            -0.1689411997795105,
            0.46804141998291016,
            -0.4061351418495178,
            0.5470219850540161,
            0.30090442299842834,
            -0.05616665259003639,
            0.2515616714954376,
            -0.2452169954776764,
            0.04768300801515579,
            0.32362279295921326,
            0.07443174719810486,
            0.4778423011302948,
            0.4398767948150635,
            -0.4393184185028076,
            0.0554671548306942,
            -0.15848208963871002,
            0.3155773878097534,
            0.6262115240097046,
            -0.5258768796920776,
            0.13822877407073975,
            0.48231539130210876,
            -0.2893121838569641,
            0.05288319289684296,
            -0.45410507917404175,
            0.1345084011554718,
            -0.31911975145339966,
            -0.1453108787536621,
            0.06972885131835938,
            -0.3834460973739624,
            -0.31325870752334595,
            -0.03045918419957161,
            0.49586063623428345,
            0.10812240093946457,
            -0.38973987102508545,
            -0.06440446525812149,
            -0.08139138668775558,
            0.2869245409965515,
            -0.5314830541610718,
            0.27549731731414795,
            -0.24502719938755035,
            -0.17775021493434906,
            -0.05025123059749603,
            -0.12764066457748413,
            -0.03571377694606781,
            0.2189003974199295,
            0.4480498433113098,
            0.02107447385787964
          ]
        }
      },
      "step_info": {}
    },
    {
      "step": 15,
      "step_name": "StatePropagator_gru_multi_step_completed",
      "timestamp": "2025-08-27T18:35:02.071453",
      "data": {
        "reset_gate": {
          "shape": [
            8,
            64
          ],
          "dtype": "float32",
          "mean": 0.5054336190223694,
          "std": 0.1034850925207138,
          "min": 0.21634696424007416,
          "max": 0.7566475868225098,
          "sample": [
            0.3650343716144562,
            0.5478640198707581,
            0.6159836649894714,
            0.3746999502182007,
            0.4406185448169708,
            0.526362419128418,
            0.3764725625514984,
            0.6619935631752014,
            0.5639291405677795,
            0.5637469291687012,
            0.3651561141014099,
            0.4606046676635742,
            0.43677181005477905,
            0.384039044380188,
            0.6112476587295532,
            0.5933151841163635,
            0.5527774095535278,
            0.6569468379020691,
            0.6322854161262512,
            0.21634696424007416,
            0.5106698274612427,
            0.6528898477554321,
            0.32788535952568054,
            0.5806462168693542,
            0.4201202094554901,
            0.4460819661617279,
            0.42175137996673584,
            0.48734357953071594,
            0.6001461148262024,
            0.3743372857570648,
            0.41663187742233276,
            0.5454007387161255,
            0.48520785570144653,
            0.6548479795455933,
            0.38299235701560974,
            0.44616857171058655,
            0.5047500133514404,
            0.44140347838401794,
            0.4994684159755707,
            0.5432172417640686,
            0.48856064677238464,
            0.5985162854194641,
            0.38616010546684265,
            0.6256313920021057,
            0.5710839033126831,
            0.2680091857910156,
            0.533747136592865,
            0.5806460976600647,
            0.7312263250350952,
            0.36599001288414,
            0.3359355032444,
            0.3797737658023834,
            0.5882245302200317,
            0.4309059977531433,
            0.41354769468307495,
            0.5920634269714355,
            0.5812386870384216,
            0.4637119770050049,
            0.39882737398147583,
            0.42612239718437195,
            0.4493003785610199,
            0.7204117774963379,
            0.4019032120704651,
            0.4961529076099396,
            0.28637179732322693,
            0.5071843266487122,
            0.6069654822349548,
            0.5532759428024292,
            0.6170544028282166,
            0.553366482257843,
            0.4355786144733429,
            0.624992847442627,
            0.30489009618759155,
            0.5192588567733765,
            0.3286418616771698,
            0.4988662600517273,
            0.2877243757247925,
            0.7129614949226379,
            0.4200817048549652,
            0.4371274709701538,
            0.727323591709137,
            0.5880553126335144,
            0.5747708678245544,
            0.5391700863838196,
            0.5197771191596985,
            0.4867328405380249,
            0.4822799563407898,
            0.3570772111415863,
            0.5030812621116638,
            0.5015625357627869,
            0.7482015490531921,
            0.2684098184108734,
            0.46310070157051086,
            0.648204505443573,
            0.46889084577560425,
            0.5559794306755066,
            0.43005481362342834,
            0.5554264187812805,
            0.545738160610199,
            0.4356822967529297
          ]
        },
        "update_gate": {
          "shape": [
            8,
            64
          ],
          "dtype": "float32",
          "mean": 0.49703723192214966,
          "std": 0.10399666428565979,
          "min": 0.2351999580860138,
          "max": 0.7782307863235474,
          "sample": [
            0.4504859447479248,
            0.24098600447177887,
            0.34037867188453674,
            0.4658377170562744,
            0.5611115097999573,
            0.4908612072467804,
            0.39624515175819397,
            0.5101243257522583,
            0.33739882707595825,
            0.5574894547462463,
            0.3996303081512451,
            0.3135474622249603,
            0.38451024889945984,
            0.5013203024864197,
            0.5664020776748657,
            0.5679602026939392,
            0.4539719820022583,
            0.5097522139549255,
            0.5192684531211853,
            0.6254898309707642,
            0.5405329465866089,
            0.4590345323085785,
            0.307858407497406,
            0.5647056102752686,
            0.437243789434433,
            0.6257731318473816,
            0.634932279586792,
            0.4343468248844147,
            0.45373547077178955,
            0.3940194547176361,
            0.38296911120414734,
            0.6210267543792725,
            0.49364736676216125,
            0.7125011682510376,
            0.42080357670783997,
            0.5882154107093811,
            0.34309905767440796,
            0.3497977554798126,
            0.4688715934753418,
            0.5765749216079712,
            0.2705532908439636,
            0.6004580855369568,
            0.5405848026275635,
            0.4605174958705902,
            0.49538350105285645,
            0.7609632611274719,
            0.6563965678215027,
            0.44297701120376587,
            0.41929417848587036,
            0.6070207357406616,
            0.5556464195251465,
            0.39999836683273315,
            0.5001820921897888,
            0.5308492183685303,
            0.5258709788322449,
            0.3759984076023102,
            0.3123302757740021,
            0.4777345657348633,
            0.32243409752845764,
            0.6245500445365906,
            0.48657920956611633,
            0.571506679058075,
            0.5635271668434143,
            0.443509042263031,
            0.42716315388679504,
            0.4740997850894928,
            0.6026893854141235,
            0.6036838889122009,
            0.5290461778640747,
            0.4587368965148926,
            0.6218270063400269,
            0.5246044397354126,
            0.43647727370262146,
            0.594454288482666,
            0.5862382054328918,
            0.5099696516990662,
            0.3675375282764435,
            0.34733617305755615,
            0.5994738340377808,
            0.5139598846435547,
            0.32584965229034424,
            0.44238823652267456,
            0.5540429353713989,
            0.5555242896080017,
            0.6895955204963684,
            0.2351999580860138,
            0.3177679181098938,
            0.597493052482605,
            0.3867226243019104,
            0.6828839778900146,
            0.5261502265930176,
            0.47439461946487427,
            0.40999719500541687,
            0.3733990490436554,
            0.5133629441261292,
            0.6136732697486877,
            0.363139271736145,
            0.44420355558395386,
            0.36551612615585327,
            0.6739911437034607
          ]
        },
        "candidate_states": {
          "shape": [
            8,
            64
          ],
          "dtype": "float32",
          "mean": -0.020548105239868164,
          "std": 0.22081971168518066,
          "min": -0.5843359231948853,
          "max": 0.5654869675636292,
          "sample": [
            0.22450941801071167,
            -0.13611508905887604,
            0.27293094992637634,
            0.129388228058815,
            -0.33397820591926575,
            -0.1734876036643982,
            -0.17236262559890747,
            -0.08745107799768448,
            -0.17877033352851868,
            0.05055997893214226,
            -0.17208856344223022,
            0.5228307843208313,
            -0.05789971724152565,
            -0.07464255392551422,
            -0.2945862114429474,
            0.057026252150535583,
            0.1810857355594635,
            -0.19162605702877045,
            0.24478836357593536,
            0.19780971109867096,
            0.06822990626096725,
            0.4027889668941498,
            -0.24455399811267853,
            -0.02994665317237377,
            0.10509272664785385,
            -0.2272571176290512,
            0.138661727309227,
            -0.2587173581123352,
            0.31625261902809143,
            0.09630834311246872,
            -0.3616481125354767,
            0.22214700281620026,
            -0.3482658565044403,
            -0.23604178428649902,
            0.018310099840164185,
            -0.19252638518810272,
            -0.13779643177986145,
            -0.029625793918967247,
            0.47653767466545105,
            -0.38936588168144226,
            -0.14722459018230438,
            0.09376704692840576,
            0.24826137721538544,
            0.018748261034488678,
            -0.09873596578836441,
            -0.037404533475637436,
            -0.22932252287864685,
            0.3804229199886322,
            0.4384486973285675,
            0.11561715602874756,
            -0.007693503983318806,
            0.37782222032546997,
            0.1602625548839569,
            -0.1480109691619873,
            0.11512993276119232,
            -0.07743790745735168,
            0.09631816297769547,
            -0.19246806204319,
            -0.359576016664505,
            -0.4815555512905121,
            0.1105271652340889,
            -0.3140278160572052,
            -0.008072610944509506,
            -0.09052027761936188,
            -0.22409677505493164,
            0.3594721555709839,
            0.012016336433589458,
            0.013095930218696594,
            -0.12258243560791016,
            0.004109055735170841,
            0.016628103330731392,
            -0.11867490410804749,
            0.08420281112194061,
            0.38910767436027527,
            -0.010957823134958744,
            0.2120981067419052,
            -0.14887823164463043,
            0.3516152799129486,
            -0.1387462168931961,
            0.1750030368566513,
            0.08916956931352615,
            -0.10066797584295273,
            -0.12308644503355026,
            -0.12924380600452423,
            0.19837357103824615,
            0.024331165477633476,
            -0.06471569091081619,
            0.17993950843811035,
            -0.3075682520866394,
            -0.22462064027786255,
            0.25760897994041443,
            0.5654869675636292,
            -0.1461092233657837,
            -0.059422172605991364,
            -0.22469113767147064,
            -0.16842009127140045,
            0.05258498713374138,
            0.1612672507762909,
            0.08879515528678894,
            0.3455650806427002
          ]
        },
        "new_states": {
          "shape": [
            2,
            4,
            64
          ],
          "dtype": "float32",
          "mean": -0.010889297351241112,
          "std": 0.5079206228256226,
          "min": -1.7214246988296509,
          "max": 1.6361838579177856,
          "sample": [
            0.4219546318054199,
            -1.44590163230896,
            0.12025770545005798,
            0.41226157546043396,
            0.5400887131690979,
            -0.8410680890083313,
            0.6669266223907471,
            -0.5773622989654541,
            0.07185590267181396,
            -1.1023274660110474,
            1.0050947666168213,
            -0.6419697999954224,
            -0.16077914834022522,
            -0.20095275342464447,
            -0.018979564309120178,
            -0.5568487048149109,
            0.885553240776062,
            -0.7025833129882812,
            -0.10070259869098663,
            -0.20288361608982086,
            -0.25662145018577576,
            -0.1908111721277237,
            -0.7074226140975952,
            -0.0728967934846878,
            -0.3256649971008301,
            -0.2538599669933319,
            -0.3731776177883148,
            -1.107625126838684,
            0.06626900285482407,
            0.12636619806289673,
            -0.41048765182495117,
            0.36647602915763855,
            0.2806050181388855,
            0.1609417200088501,
            0.22639551758766174,
            -0.5118439793586731,
            0.21497876942157745,
            -0.1896723061800003,
            0.5789879560470581,
            -0.2820988893508911,
            -0.2546297013759613,
            0.34760454297065735,
            0.6470646858215332,
            0.8016775250434875,
            -0.6411340832710266,
            -0.43141400814056396,
            0.2197989523410797,
            -0.012431010603904724,
            0.1602311134338379,
            0.09611453115940094,
            -0.9153222441673279,
            0.38679349422454834,
            0.6136037111282349,
            0.3859744966030121,
            -0.01731785759329796,
            0.6076135635375977,
            0.09237994253635406,
            0.17895819246768951,
            0.35806843638420105,
            0.623420000076294,
            0.602210521697998,
            -0.4204064607620239,
            0.6037194132804871,
            -0.03068121150135994,
            -0.4592408537864685,
            -0.2914203405380249,
            0.45019328594207764,
            0.09594746679067612,
            -0.5632384419441223,
            1.07427179813385,
            -0.10752632468938828,
            -0.02782353386282921,
            -0.12203200161457062,
            -0.0653022825717926,
            -0.0017916010692715645,
            0.7158268690109253,
            -0.6391891837120056,
            -0.5535576343536377,
            -0.02932831645011902,
            -0.26468154788017273,
            -0.19693966209888458,
            0.09236641228199005,
            -0.5217119455337524,
            -0.26149114966392517,
            0.3180997967720032,
            0.6043060421943665,
            0.13055646419525146,
            0.30429503321647644,
            -0.11150902509689331,
            -0.1307927668094635,
            1.0492873191833496,
            -0.23350343108177185,
            -0.8568214178085327,
            -0.007246408611536026,
            0.3194281756877899,
            0.4364036023616791,
            -0.5573230981826782,
            -0.36072954535484314,
            0.6693892478942871,
            0.5469293594360352
          ]
        }
      },
      "step_info": {}
    },
    {
      "step": 16,
      "step_name": "StatePropagator_multi_state_update_completed",
      "timestamp": "2025-08-27T18:35:02.071722",
      "data": {
        "updated_states": {
          "shape": [
            2,
            4,
            64
          ],
          "dtype": "float32",
          "mean": -0.010889297351241112,
          "std": 0.5079206228256226,
          "min": -1.7214246988296509,
          "max": 1.6361838579177856,
          "sample": [
            0.4219546318054199,
            -1.44590163230896,
            0.12025770545005798,
            0.41226157546043396,
            0.5400887131690979,
            -0.8410680890083313,
            0.6669266223907471,
            -0.5773622989654541,
            0.07185590267181396,
            -1.1023274660110474,
            1.0050947666168213,
            -0.6419697999954224,
            -0.16077914834022522,
            -0.20095275342464447,
            -0.018979564309120178,
            -0.5568487048149109,
            0.885553240776062,
            -0.7025833129882812,
            -0.10070259869098663,
            -0.20288361608982086,
            -0.25662145018577576,
            -0.1908111721277237,
            -0.7074226140975952,
            -0.0728967934846878,
            -0.3256649971008301,
            -0.2538599669933319,
            -0.3731776177883148,
            -1.107625126838684,
            0.06626900285482407,
            0.12636619806289673,
            -0.41048765182495117,
            0.36647602915763855,
            0.2806050181388855,
            0.1609417200088501,
            0.22639551758766174,
            -0.5118439793586731,
            0.21497876942157745,
            -0.1896723061800003,
            0.5789879560470581,
            -0.2820988893508911,
            -0.2546297013759613,
            0.34760454297065735,
            0.6470646858215332,
            0.8016775250434875,
            -0.6411340832710266,
            -0.43141400814056396,
            0.2197989523410797,
            -0.012431010603904724,
            0.1602311134338379,
            0.09611453115940094,
            -0.9153222441673279,
            0.38679349422454834,
            0.6136037111282349,
            0.3859744966030121,
            -0.01731785759329796,
            0.6076135635375977,
            0.09237994253635406,
            0.17895819246768951,
            0.35806843638420105,
            0.623420000076294,
            0.602210521697998,
            -0.4204064607620239,
            0.6037194132804871,
            -0.03068121150135994,
            -0.4592408537864685,
            -0.2914203405380249,
            0.45019328594207764,
            0.09594746679067612,
            -0.5632384419441223,
            1.07427179813385,
            -0.10752632468938828,
            -0.02782353386282921,
            -0.12203200161457062,
            -0.0653022825717926,
            -0.0017916010692715645,
            0.7158268690109253,
            -0.6391891837120056,
            -0.5535576343536377,
            -0.02932831645011902,
            -0.26468154788017273,
            -0.19693966209888458,
            0.09236641228199005,
            -0.5217119455337524,
            -0.26149114966392517,
            0.3180997967720032,
            0.6043060421943665,
            0.13055646419525146,
            0.30429503321647644,
            -0.11150902509689331,
            -0.1307927668094635,
            1.0492873191833496,
            -0.23350343108177185,
            -0.8568214178085327,
            -0.007246408611536026,
            0.3194281756877899,
            0.4364036023616791,
            -0.5573230981826782,
            -0.36072954535484314,
            0.6693892478942871,
            0.5469293594360352
          ]
        }
      },
      "step_info": {}
    },
    {
      "step": 17,
      "step_name": "StatePropagator_communication_started",
      "timestamp": "2025-08-27T18:35:02.071785",
      "data": {
        "states_before_communication": {
          "shape": [
            2,
            4,
            64
          ],
          "dtype": "float32",
          "mean": -0.010889297351241112,
          "std": 0.5079206228256226,
          "min": -1.7214246988296509,
          "max": 1.6361838579177856,
          "sample": [
            0.4219546318054199,
            -1.44590163230896,
            0.12025770545005798,
            0.41226157546043396,
            0.5400887131690979,
            -0.8410680890083313,
            0.6669266223907471,
            -0.5773622989654541,
            0.07185590267181396,
            -1.1023274660110474,
            1.0050947666168213,
            -0.6419697999954224,
            -0.16077914834022522,
            -0.20095275342464447,
            -0.018979564309120178,
            -0.5568487048149109,
            0.885553240776062,
            -0.7025833129882812,
            -0.10070259869098663,
            -0.20288361608982086,
            -0.25662145018577576,
            -0.1908111721277237,
            -0.7074226140975952,
            -0.0728967934846878,
            -0.3256649971008301,
            -0.2538599669933319,
            -0.3731776177883148,
            -1.107625126838684,
            0.06626900285482407,
            0.12636619806289673,
            -0.41048765182495117,
            0.36647602915763855,
            0.2806050181388855,
            0.1609417200088501,
            0.22639551758766174,
            -0.5118439793586731,
            0.21497876942157745,
            -0.1896723061800003,
            0.5789879560470581,
            -0.2820988893508911,
            -0.2546297013759613,
            0.34760454297065735,
            0.6470646858215332,
            0.8016775250434875,
            -0.6411340832710266,
            -0.43141400814056396,
            0.2197989523410797,
            -0.012431010603904724,
            0.1602311134338379,
            0.09611453115940094,
            -0.9153222441673279,
            0.38679349422454834,
            0.6136037111282349,
            0.3859744966030121,
            -0.01731785759329796,
            0.6076135635375977,
            0.09237994253635406,
            0.17895819246768951,
            0.35806843638420105,
            0.623420000076294,
            0.602210521697998,
            -0.4204064607620239,
            0.6037194132804871,
            -0.03068121150135994,
            -0.4592408537864685,
            -0.2914203405380249,
            0.45019328594207764,
            0.09594746679067612,
            -0.5632384419441223,
            1.07427179813385,
            -0.10752632468938828,
            -0.02782353386282921,
            -0.12203200161457062,
            -0.0653022825717926,
            -0.0017916010692715645,
            0.7158268690109253,
            -0.6391891837120056,
            -0.5535576343536377,
            -0.02932831645011902,
            -0.26468154788017273,
            -0.19693966209888458,
            0.09236641228199005,
            -0.5217119455337524,
            -0.26149114966392517,
            0.3180997967720032,
            0.6043060421943665,
            0.13055646419525146,
            0.30429503321647644,
            -0.11150902509689331,
            -0.1307927668094635,
            1.0492873191833496,
            -0.23350343108177185,
            -0.8568214178085327,
            -0.007246408611536026,
            0.3194281756877899,
            0.4364036023616791,
            -0.5573230981826782,
            -0.36072954535484314,
            0.6693892478942871,
            0.5469293594360352
          ]
        }
      },
      "step_info": {}
    },
    {
      "step": 18,
      "step_name": "StatePropagator_attention_applied",
      "timestamp": "2025-08-27T18:35:02.072605",
      "data": {
        "attended_states": {
          "shape": [
            2,
            4,
            64
          ],
          "dtype": "float32",
          "mean": -0.006080634891986847,
          "std": 0.092762291431427,
          "min": -0.2571001946926117,
          "max": 0.2210465669631958,
          "sample": [
            -0.03339242935180664,
            0.08621816337108612,
            0.024521369487047195,
            0.04363449290394783,
            0.1441066712141037,
            -0.14125601947307587,
            0.08903883397579193,
            -0.06647922843694687,
            -0.07046651840209961,
            -0.009938301518559456,
            0.030948100611567497,
            -0.0014711751136928797,
            -0.00829642079770565,
            0.06750798970460892,
            -0.09072037786245346,
            -0.0551312081515789,
            -0.12849564850330353,
            0.004889361094683409,
            0.13477082550525665,
            0.10694662481546402,
            -0.11957766115665436,
            0.07481231540441513,
            0.1387607753276825,
            -0.04273679107427597,
            0.12092742323875427,
            -0.029339546337723732,
            0.013901815749704838,
            -0.054648492485284805,
            0.1861678957939148,
            -0.05781993269920349,
            0.20317983627319336,
            -0.005085183773189783,
            -0.04288658872246742,
            0.06355012953281403,
            0.08160345256328583,
            -0.0754239484667778,
            0.06761729717254639,
            0.09573930501937866,
            -0.008309468626976013,
            -0.10475627332925797,
            0.14131875336170197,
            0.006808790378272533,
            0.17031078040599823,
            0.16403281688690186,
            -0.038041479885578156,
            -0.08776802569627762,
            -0.06180454418063164,
            0.10395880043506622,
            0.133253812789917,
            -0.12696854770183563,
            0.1716444492340088,
            -0.18727166950702667,
            -0.03140808641910553,
            -0.06337260454893112,
            -0.011722210794687271,
            -0.057852450758218765,
            0.04954240843653679,
            0.02688656561076641,
            -0.18627546727657318,
            0.002877049148082733,
            0.0669124647974968,
            -0.03438686951994896,
            0.06136943772435188,
            0.11121721565723419,
            -0.05132509768009186,
            0.0888015404343605,
            -0.010788553394377232,
            0.02590581215918064,
            0.1351984143257141,
            -0.14824910461902618,
            0.08916781842708588,
            -0.05169735848903656,
            -0.05473510921001434,
            -0.014366389252245426,
            0.0439552441239357,
            -0.014292233623564243,
            -0.005620392505079508,
            0.07630624622106552,
            -0.09982335567474365,
            -0.0477418377995491,
            -0.11370085924863815,
            0.009088288061320782,
            0.15157848596572876,
            0.11100079119205475,
            -0.10254596918821335,
            0.06924436241388321,
            0.14851349592208862,
            -0.03954135626554489,
            0.1240701675415039,
            -0.026306016370654106,
            0.0028719522524625063,
            -0.06631814688444138,
            0.17962051928043365,
            -0.049536433070898056,
            0.19261398911476135,
            0.010473466478288174,
            -0.054510653018951416,
            0.05812983959913254,
            0.09020986407995224,
            -0.06749651581048965
          ]
        },
        "attention_weights": {
          "shape": [
            2,
            4,
            4
          ],
          "dtype": "float32",
          "mean": 0.25,
          "std": 0.013255054131150246,
          "min": 0.22043928503990173,
          "max": 0.28333383798599243,
          "sample": [
            0.2615569233894348,
            0.26541924476623535,
            0.22043928503990173,
            0.2525845766067505,
            0.23897045850753784,
            0.25595611333847046,
            0.23352017998695374,
            0.2715532183647156,
            0.23932906985282898,
            0.23554418981075287,
            0.2529905438423157,
            0.27213621139526367,
            0.26906484365463257,
            0.24655389785766602,
            0.25309208035469055,
            0.23128917813301086,
            0.2496742606163025,
            0.24695995450019836,
            0.2539343237876892,
            0.24943143129348755,
            0.23950208723545074,
            0.2637690007686615,
            0.243144229054451,
            0.25358468294143677,
            0.24991554021835327,
            0.2500818371772766,
            0.24938476085662842,
            0.2506178915500641,
            0.23800355195999146,
            0.23422543704509735,
            0.24443712830543518,
            0.28333383798599243
          ]
        }
      },
      "step_info": {}
    },
    {
      "step": 19,
      "step_name": "Attention_State_to_state",
      "timestamp": "2025-08-27T18:35:02.072882",
      "data": {
        "attention_operation": {
          "attention_type": "state_to_state",
          "query_info": "states_4",
          "key_info": "states_4",
          "attention_weights": {
            "shape": [
              2,
              4,
              4
            ],
            "dtype": "float32",
            "mean": 0.25,
            "std": 0.013255054131150246,
            "min": 0.22043928503990173,
            "max": 0.28333383798599243,
            "sample": [
              0.2615569233894348,
              0.26541924476623535,
              0.22043928503990173,
              0.2525845766067505,
              0.23897045850753784,
              0.25595611333847046,
              0.23352017998695374,
              0.2715532183647156,
              0.23932906985282898,
              0.23554418981075287,
              0.2529905438423157,
              0.27213621139526367,
              0.26906484365463257,
              0.24655389785766602,
              0.25309208035469055,
              0.23128917813301086,
              0.2496742606163025,
              0.24695995450019836,
              0.2539343237876892,
              0.24943143129348755,
              0.23950208723545074,
              0.2637690007686615,
              0.243144229054451,
              0.25358468294143677,
              0.24991554021835327,
              0.2500818371772766,
              0.24938476085662842,
              0.2506178915500641,
              0.23800355195999146,
              0.23422543704509735,
              0.24443712830543518,
              0.28333383798599243
            ]
          },
          "attended_values": {
            "shape": [
              2,
              4,
              64
            ],
            "dtype": "float32",
            "mean": -0.006080634891986847,
            "std": 0.092762291431427,
            "min": -0.2571001946926117,
            "max": 0.2210465669631958,
            "sample": [
              -0.03339242935180664,
              0.08621816337108612,
              0.024521369487047195,
              0.04363449290394783,
              0.1441066712141037,
              -0.14125601947307587,
              0.08903883397579193,
              -0.06647922843694687,
              -0.07046651840209961,
              -0.009938301518559456,
              0.030948100611567497,
              -0.0014711751136928797,
              -0.00829642079770565,
              0.06750798970460892,
              -0.09072037786245346,
              -0.0551312081515789,
              -0.12849564850330353,
              0.004889361094683409,
              0.13477082550525665,
              0.10694662481546402,
              -0.11957766115665436,
              0.07481231540441513,
              0.1387607753276825,
              -0.04273679107427597,
              0.12092742323875427,
              -0.029339546337723732,
              0.013901815749704838,
              -0.054648492485284805,
              0.1861678957939148,
              -0.05781993269920349,
              0.20317983627319336,
              -0.005085183773189783,
              -0.04288658872246742,
              0.06355012953281403,
              0.08160345256328583,
              -0.0754239484667778,
              0.06761729717254639,
              0.09573930501937866,
              -0.008309468626976013,
              -0.10475627332925797,
              0.14131875336170197,
              0.006808790378272533,
              0.17031078040599823,
              0.16403281688690186,
              -0.038041479885578156,
              -0.08776802569627762,
              -0.06180454418063164,
              0.10395880043506622,
              0.133253812789917,
              -0.12696854770183563,
              0.1716444492340088,
              -0.18727166950702667,
              -0.03140808641910553,
              -0.06337260454893112,
              -0.011722210794687271,
              -0.057852450758218765,
              0.04954240843653679,
              0.02688656561076641,
              -0.18627546727657318,
              0.002877049148082733,
              0.0669124647974968,
              -0.03438686951994896,
              0.06136943772435188,
              0.11121721565723419,
              -0.05132509768009186,
              0.0888015404343605,
              -0.010788553394377232,
              0.02590581215918064,
              0.1351984143257141,
              -0.14824910461902618,
              0.08916781842708588,
              -0.05169735848903656,
              -0.05473510921001434,
              -0.014366389252245426,
              0.0439552441239357,
              -0.014292233623564243,
              -0.005620392505079508,
              0.07630624622106552,
              -0.09982335567474365,
              -0.0477418377995491,
              -0.11370085924863815,
              0.009088288061320782,
              0.15157848596572876,
              0.11100079119205475,
              -0.10254596918821335,
              0.06924436241388321,
              0.14851349592208862,
              -0.03954135626554489,
              0.1240701675415039,
              -0.026306016370654106,
              0.0028719522524625063,
              -0.06631814688444138,
              0.17962051928043365,
              -0.049536433070898056,
              0.19261398911476135,
              0.010473466478288174,
              -0.054510653018951416,
              0.05812983959913254,
              0.09020986407995224,
              -0.06749651581048965
            ]
          },
          "operation_info": {}
        }
      },
      "step_info": {}
    },
    {
      "step": 20,
      "step_name": "StatePropagator_communication_completed",
      "timestamp": "2025-08-27T18:35:02.073019",
      "data": {
        "states_after_communication": {
          "shape": [
            2,
            4,
            64
          ],
          "dtype": "float32",
          "mean": -5.587935447692871e-09,
          "std": 0.999980628490448,
          "min": -3.1094911098480225,
          "max": 3.8118960857391357,
          "sample": [
            0.7398725748062134,
            -2.5714683532714844,
            0.27812451124191284,
            0.8674092292785645,
            1.2998294830322266,
            -1.8567142486572266,
            1.435768723487854,
            -1.2155965566635132,
            0.006531046237796545,
            -2.1028361320495605,
            1.966261386871338,
            -1.214837908744812,
            -0.3163455128669739,
            -0.24885742366313934,
            -0.20388251543045044,
            -1.155247688293457,
            1.4378373622894287,
            -1.3175981044769287,
            0.06842783093452454,
            -0.17781420052051544,
            -0.708656907081604,
            -0.21581324934959412,
            -1.0731991529464722,
            -0.21512140333652496,
            -0.383892685174942,
            -0.5325070023536682,
            -0.6766025424003601,
            -2.1975555419921875,
            0.4820384979248047,
            0.13373246788978577,
            -0.3887609541416168,
            0.6884074807167053,
            0.4541603624820709,
            0.42910799384117126,
            0.5872782468795776,
            -1.10844087600708,
            0.5391627550125122,
            -0.17401845753192902,
            1.084817886352539,
            -0.7288404703140259,
            -0.21072210371494293,
            0.6751914024353027,
            1.552085041999817,
            1.8330451250076294,
            -1.2825225591659546,
            -0.9794798493385315,
            0.3031556010246277,
            0.177261620759964,
            0.5597872734069824,
            -0.0545409694314003,
            -1.4046958684921265,
            0.3818124234676361,
            1.1066324710845947,
            0.6149375438690186,
